{"modelType":"minilm-ordinal-regression","version":1,"featureVersion":2,"classes":["light","mid","deep","ultra"],"hiddenSize":384,"featureSize":402,"training":{"data":"tools/eval_prompts.jsonl","extraTrain":["tools/extra_train_prompts.jsonl","tools/contrastive_train_opus_1200.jsonl","tools/targeted_train_opus_800.jsonl","tools/targeted_train_opus_600_v2_selected.jsonl","tools/calibration_500.jsonl","tools/stress_300.jsonl","tools/targeted_train_hard_v3.jsonl","tools/boundary_train_v4.jsonl"],"examples":759,"extraExamples":4711,"epochs":140,"learningRate":0.18,"l2":0.0007,"typoAugment":1,"wrapperAugment":1,"seed":42,"holdout":0.2,"thresholdTuning":{"thresholds":{"mid":0.25,"deep":0.55,"ultra":0.75},"objective":0.032237},"holdoutReport":{"accuracy":0.9342,"macroF1":0.9317,"routingCost":0.0789,"confusion":[[30,6,0,0],[0,45,1,1],[0,0,47,2],[0,0,0,20]],"perTier":{"light":{"precision":1,"recall":0.8333,"f1":0.9091,"support":36},"mid":{"precision":0.8824,"recall":0.9574,"f1":0.9184,"support":47},"deep":{"precision":0.9792,"recall":0.9592,"f1":0.9691,"support":49},"ultra":{"precision":0.8696,"recall":1,"f1":0.9302,"support":20}}},"stressReport":{"accuracy":0.75,"macroF1":0.7,"routingCost":0.4167,"confusion":[[1,1,0,0],[0,1,0,0],[0,1,5,1],[0,0,0,2]],"perTier":{"light":{"precision":1,"recall":0.5,"f1":0.6667,"support":2},"mid":{"precision":0.3333,"recall":1,"f1":0.5,"support":1},"deep":{"precision":1,"recall":0.7143,"f1":0.8333,"support":7},"ultra":{"precision":0.6667,"recall":1,"f1":0.8,"support":2}},"mistakes":[{"expected":"deep","predicted":"mid","score":0.2225,"margin":0.31,"prompt":"scan this project for secuity by checking owasp top 10"},{"expected":"deep","predicted":"ultra","score":0.849,"margin":0.6984,"prompt":"design the archtecture for multi region failover"},{"expected":"light","predicted":"mid","score":0.6493,"margin":0.3886,"prompt":"add a console log to print the security flag"}]},"trainReport":{"accuracy":0.9407,"macroF1":0.9391,"routingCost":0.0659,"confusion":[[152,26,1,0],[1,227,5,0],[0,0,235,12],[0,0,0,100]]},"createdAt":"2026-06-29T14:14:05.760Z","productionThresholds":{"mid":0.4,"deep":0.55,"ultra":0.55},"calibrationTuning":{"file":"tools/final_holdout_opus_500.jsonl","thresholds":{"mid":0.4,"deep":0.55,"ultra":0.55},"report":{"accuracy":0.934,"routingCost":0.17,"underRouteRate":0.032,"severeUnderRouteRate":0.002,"overRouteRate":0.034,"perTier":{"light":{"precision":0.9286,"recall":0.936,"f1":0.9323},"mid":{"precision":0.9098,"recall":0.888,"f1":0.8988},"deep":{"precision":0.944,"recall":0.944,"f1":0.944},"ultra":{"precision":0.9528,"recall":0.968,"f1":0.9603}},"confusion":{"light":{"light":117,"mid":7,"deep":1,"ultra":0},"mid":{"light":9,"mid":111,"deep":3,"ultra":2},"deep":{"light":0,"mid":3,"deep":118,"ultra":4},"ultra":{"light":0,"mid":1,"deep":3,"ultra":121}}},"tunedAt":"2026-06-29T14:14:06.503Z"}},"ordinalHeads":[{"name":"mid","minRank":1,"threshold":0.4,"temperature":1,"weights":[0.010321818,-0.46999231,0.045378192,-0.3253786,-0.70616875,-0.012363062,-0.65409336,0.078459169,-0.83469099,-0.49504171,-1.3389114,-0.031320361,0.44084973,-0.30365061,0.53753755,-0.55793558,0.055033508,0.30579982,0.55055758,-0.43983181,-0.94951235,-1.1240657,0.49671113,0.22032407,-0.62503399,0.13726387,0.38838489,-1.028477,0.10446412,0.39628236,0.76240166,-0.072925547,-1.2196025,-0.83164175,0.54940576,-0.29692349,0.05088505,-0.037368435,-0.57066837,-0.20993287,0.13429076,0.75683069,-0.15416208,0.037102057,0.36327482,-1.3828045,1.0557025,0.30588686,0.38982543,-0.15499016,-0.94712384,-0.037389556,1.1541442,0.41650468,-0.53057357,-0.32578467,0.29254021,-0.70898307,-0.24813957,-0.04427666,-0.80458059,-0.16248939,0.15502575,-0.49677646,-0.98375568,1.3041863,-0.25880423,0.20519169,0.74558958,-0.046012844,0.39417215,0.34705474,-0.34724284,0.26202745,-0.37000035,0.44981634,-0.6810322,-0.84256934,0.35718544,-0.22079545,1.1483419,-0.83364807,0.072802813,0.27479297,0.39168734,-0.22206789,0.33733238,0.65624746,0.15920131,0.46429391,0.49921247,0.93790098,0.16635689,-0.47165015,0.88267663,0.5577789,0.35961234,-1.5652875,1.1914376,-0.025078347,-0.41537753,0.13321473,0.32969169,-0.18650906,0.65560087,0.65470138,-0.36379957,0.012525477,-0.0067011806,0.61014845,0.12358822,0.026908593,-0.0037855288,0.21250538,0.5860962,-0.58888559,0.16821735,-0.3747004,-0.42860316,0.14114302,0.0016252255,0.407554,0.37013155,0.265397,1.4828792,0.19173419,-0.62315713,5.2214074e-32,-0.17847193,-0.18372369,0.69652153,0.12376083,-0.75483777,0.054683519,0.076799647,0.20143626,0.81388842,-0.58397233,-0.63716919,0.53720847,-0.27954515,-0.23224666,0.32152219,-0.042802631,0.67438336,-0.041142901,-0.19809985,0.14851356,0.30449126,-1.0854253,-0.073075601,-0.14303831,-0.24754203,-0.35190765,-1.1021254,0.85913891,-0.54597379,0.056830106,0.12659185,0.12925846,-0.066034407,0.90967079,-0.68019295,-0.30820052,0.098146618,0.51921546,0.24431049,-0.43880275,-0.40079352,0.28407061,0.49180993,0.32705995,-0.75670193,-0.21635021,0.32352853,-0.32412116,0.33255799,-0.3439646,0.38863568,0.11156876,-0.3473495,0.42556601,0.10798822,-0.47575053,-0.44087117,-0.48848681,0.99440019,0.72212896,-0.61317101,-0.66421513,-0.14742281,-0.20435301,0.10840791,0.14175977,-0.3325686,-0.99207366,-0.71471844,0.0048236945,0.26654857,0.082548378,0.27426896,-0.83140616,-0.032681031,0.15701711,0.23922083,0.12700725,-0.42941344,-0.29460033,1.3867074,-0.40634746,0.51931787,0.1840983,0.95333886,0.02748561,-0.28268583,0.24212099,-0.75413706,0.79774745,0.13644333,0.33351831,0.80755861,0.2248958,0.9483686,-2.6890647e-32,-0.6850642,-0.55395687,0.53251622,0.034760488,0.2806226,0.018743838,-0.74208152,-0.45083174,-0.69115664,-0.4496377,-1.2014324,-0.82355861,0.068166419,0.49991591,-1.2916823,-0.05345603,0.95454682,0.069719899,1.1210966,0.17685634,-0.16703593,0.9139704,-0.42936893,0.38546282,-0.48455073,0.40342371,-0.55085567,-0.43275897,0.40850227,-0.19407026,-0.28473313,-0.11167427,0.55263994,0.0083765843,0.27952551,-0.0037677375,-1.0526913,1.4105858,0.29425485,0.44182035,0.49912193,-0.22391578,-0.61254246,-0.86683548,1.110051,-0.43713046,-0.38663996,0.61933143,-0.55453711,-0.00089309393,-0.32688333,0.18944803,-0.11934433,-0.27103988,0.62523125,0.2143263,1.282186,-0.59078819,0.1362548,0.45984848,-0.6942372,-0.75989191,0.65269425,-0.65326883,1.0294665,-0.25616825,0.98113447,-0.43010516,-0.16397389,0.45562018,0.06258696,-0.14075987,1.4315667,0.63863541,1.1909296,0.43098618,-0.89722623,0.0026334312,1.2521553,0.038548099,-0.50137135,0.26406117,0.90742434,-0.38226882,-0.33312936,0.88708396,-0.34865953,-0.8519511,0.65193961,0.65414169,-0.70049829,-0.25089726,0.23297714,-1.3778574,0.93139706,-1.0870126e-8,0.38276675,0.13985047,-1.0097134,0.80408787,-0.47420068,-0.39322931,-0.6464729,0.69847968,-0.16519158,-0.37977759,-0.34734921,-0.56937623,0.81803189,1.057175,-0.78793252,0.506821,0.6748815,-0.46234006,-0.85529743,-0.63827876,0.40367464,0.29435356,0.6668956,0.62286139,0.077867364,0.24978353,-0.5033612,-0.49545246,0.64084643,0.37844187,-0.45338987,-1.7722484,-0.26300293,0.46050443,-0.63141865,-0.34027752,-0.30844645,-0.24574457,-0.31531822,-0.33786924,0.57637368,0.90924958,-0.47561204,-0.29549426,1.2772839,0.21308711,-0.76110845,0.56822865,0.0667662,0.48219769,-0.32852329,-0.50929759,-0.051076564,0.67686866,0.48356184,-1.2141732,-0.32248971,0.25739577,0.76274999,0.14816302,-0.50597333,-1.0163998,-1.1160033,0.1167982,2.0942809,0.26277548,0.15416736,0,-0.4929073,-3.2191986,-1.2986162,1.5120648,1.6185893,0.93981237,-0.81068398,0.94594992,0.92240037,0.11926351,0.099594865,0,-0.13515687,1.400754],"bias":-0.66297106},{"name":"deep","minRank":2,"threshold":0.55,"temperature":1,"weights":[0.27444801,-0.40463574,-0.01780663,-0.59155362,0.28974349,-0.20711842,-0.45682468,0.68010293,0.076061442,-0.24187738,-0.49516817,0.82838462,0.30335112,-0.021538643,0.48231661,-0.7649307,0.59740909,-0.030872173,-0.55444687,-0.16888886,-0.50528327,-1.4579126,-0.60077562,-0.089078541,0.068791109,0.35104471,0.098076622,-0.14318935,-0.25382765,-0.77022086,0.19309623,0.49188692,0.4337228,-0.045847437,-0.19177644,0.17096767,0.66206137,-0.69472886,0.10243433,-0.45756695,-0.24809632,-0.081359862,-0.83658741,-0.077108739,0.41071643,-0.40465011,0.39069404,0.011817105,-0.38319188,0.14024259,-0.786192,-0.48854168,0.042548138,0.30246977,-0.67528953,-0.028941881,0.48400345,-0.52546441,0.084851708,-0.48075271,-0.39965312,-0.05428388,-0.78761232,-0.028645831,0.18507072,0.061980039,0.09443943,0.14750085,-0.0097659223,0.0025616658,0.0018909588,-0.33699312,-0.48764532,0.38255121,-0.27917356,0.15935765,0.39490268,-0.23700548,0.32091103,-0.47624351,0.7897655,0.72239221,-0.58664287,0.49621158,-0.95176447,-0.46715903,-0.58570466,0.071995642,0.1609931,-0.005089527,0.52155757,0.34899925,1.0287358,-0.24076559,0.47578949,0.04491743,0.027386164,-1.0747902,1.0231922,0.3660681,0.44148154,0.62440205,1.0850928,-0.33537984,-0.77349344,0.2663465,-0.46699321,0.050456675,0.24038078,0.37395625,-0.086732323,-0.54872226,-0.565301,-0.15152284,0.98936402,-0.21771186,-0.68698654,0.089395119,-0.41654992,0.1903824,-0.27931446,0.17623985,1.0999903,-0.34840963,0.42667053,1.1532898,-0.72612686,8.4564277e-32,-0.81133096,0.15277735,0.30153943,-0.27030203,-0.18405245,-0.39244763,-0.052400465,-0.23253582,0.54334848,0.02890906,0.071558876,0.78080442,-0.32357558,-0.10041856,0.84936122,-0.19656971,0.40999939,0.77158447,-0.47503345,0.53916689,-0.34380678,-0.32158641,-0.26278401,0.24804087,0.58996445,-0.52211974,-0.21556495,0.30188158,0.3708104,-0.063650715,0.58195298,0.54257138,-0.50819219,0.28786017,-0.21971321,0.4925924,-0.20275283,-0.55970153,0.67797949,-0.59918156,-0.65427076,0.44526675,0.26344399,0.53189073,0.082419765,0.88014874,0.29472248,-0.49618426,0.50020514,0.062063288,-0.47609401,-0.11668764,-0.18339453,0.6735954,0.17863424,0.061159493,-0.14875743,-0.88500041,0.23643683,-0.13504801,-0.13989968,-0.75436613,0.098315807,-0.14508775,0.38784032,0.098424689,-0.26728102,-0.53121832,0.033341771,0.66768666,-0.12406416,0.094585158,0.16772295,0.30476754,-0.12546641,-0.25908567,-0.15893165,0.39972292,-0.092484205,-0.097488549,-0.53277324,1.0062246,-0.14780275,-0.10540016,0.21488934,0.54830321,0.28344118,-0.3268289,-0.1478461,1.1914001,-0.14314165,0.66585475,-0.14984781,1.2739585,0.30180377,-7.5048895e-32,-0.70757426,-0.10246288,0.012586266,0.29299861,-0.19402944,-0.32219039,-1.2853492,-0.18826052,0.036442069,0.13424046,-0.69436863,-0.30894422,0.21072019,-0.023388917,-1.1431416,0.074138122,1.2239391,-0.098107218,0.5047434,-0.22190025,0.011305916,1.0932982,-0.86343072,0.042866094,-0.025666504,0.073962782,-0.35207813,-0.63187648,0.23691873,-0.29004685,-0.034078879,-0.39084083,0.40442424,0.21617249,-0.014069634,0.0030130748,-0.48310117,0.2416095,0.12343044,-0.35429963,0.062593643,0.02403324,-0.14869058,-0.72804838,0.092865258,-0.21787374,-0.069747217,0.47704145,0.20995757,-0.91606824,0.2937316,0.10186203,0.74032076,-0.32474049,0.2560692,0.16548844,0.71919862,-0.50789782,-0.60593525,0.1145137,0.2199001,0.12434345,0.10135357,0.0028404454,0.32732733,0.23283646,0.83563711,-0.17851333,-0.12824811,0.26210844,-0.43773462,-0.50017699,0.17885317,0.028376186,0.20452648,-0.54609727,-0.76112119,0.097515051,-0.55879046,-0.57332856,-0.21807701,0.21802264,-0.18897838,-0.47795148,-0.26949334,0.39708296,0.50691392,-0.93212941,0.27836034,0.27352062,-0.70190772,-0.36365524,-0.87952546,-0.33274125,0.27361404,-1.8535965e-7,0.33402015,0.083190208,-0.20133838,0.43069979,0.061018724,-0.038408123,-0.40927668,0.52920611,-0.15343988,0.59415902,-0.56687984,0.037149519,-0.13093307,0.34437695,0.045912622,0.26812263,0.61399405,0.078393525,-0.8567016,-0.26870169,0.72773426,-0.090063457,0.26057773,-0.21241952,-0.20818842,0.23830751,0.1140221,0.11283775,0.7177278,0.54577406,-0.63904332,-0.11122495,-0.37700893,-0.40036142,0.20650602,-0.30840541,-0.57262539,0.14041112,0.35301016,0.35168861,0.094286041,0.57765357,0.32980599,0.39412976,0.20894536,-0.074737341,-1.1220566,0.28347138,0.088153463,-0.29697681,-0.15152656,-0.38730921,0.075625438,1.0606593,0.71177172,-0.11076432,-0.47539663,0.54754394,-0.080873077,0.51480876,0.30071168,-0.65778234,-0.3417744,-0.059893475,2.5707762,0.37227341,0.42289393,0,-0.1207573,-0.94032706,-2.0115241,1.5520001,2.1102766,-1.2399107,-1.4154889,1.2400684,1.2792396,0.58497962,0.3232249,0,-0.03105685,1.9831874],"bias":-2.6236099},{"name":"ultra","minRank":3,"threshold":0.55,"temperature":1,"weights":[0.67141788,-0.25268067,0.15932199,-0.4113552,-0.1829643,0.12085217,-0.45160615,0.77415865,-0.030636842,-0.30837162,-0.20659663,0.44232228,0.069916752,0.094656503,0.21505338,-0.65452606,-0.39459294,0.93608511,-0.3120581,0.3325299,-0.67047543,-1.2962802,-0.17675234,-0.059664944,0.058386661,0.38357232,-0.38727375,-0.54727192,-0.32089843,-0.722992,0.35361397,0.44415363,1.2135681,0.43710321,-0.20071809,0.60384677,0.44886749,-0.59268571,0.096615404,-1.1388531,-0.24564865,-0.10553597,-1.1395772,-0.44015995,0.75999883,-0.33366658,0.29038856,-0.32943011,0.0046565655,1.0420746,-0.65585248,-1.0827247,-0.79996134,0.68998141,-0.57508167,0.53583332,0.41004106,-0.086319962,0.47317657,-0.5345439,-0.85667669,0.13567321,-0.85126308,0.43079214,-0.69211804,-0.79014223,-0.10477606,1.5217424,-0.25735948,-0.21539039,0.80787472,-1.2819775,-0.27504525,0.17016292,-0.55275324,-0.11765551,0.6631328,0.089486108,-0.062025376,-0.30076223,0.073231937,1.0989638,-0.12741719,0.55672048,-1.1135305,-0.33313517,-0.69480941,0.53340517,0.68480052,0.038092266,-0.31784651,-0.40546496,0.89283799,-0.83208378,-0.27495081,-0.988995,0.10541143,-0.78632491,1.6296949,0.79911944,0.17369797,0.513828,1.0401169,-0.80161185,-1.3525032,0.081251285,-1.0045505,0.35994581,0.34789331,0.082659569,-0.56141148,-0.88782358,0.18236285,-0.67616065,1.4292236,0.056806741,-1.1849173,0.088232448,0.54443804,-0.59256795,0.035082028,0.31905391,1.5715905,-0.45331658,0.67968194,1.1120102,-0.6979292,8.560054e-32,0.050578224,0.27702931,0.07455065,0.39393867,0.51653882,-0.48207317,0.13247811,0.033506889,-0.00023169195,0.086759862,0.077129105,0.89097896,-0.43886216,0.42863156,0.42276538,-0.29135449,0.57137543,0.58731898,0.490953,-0.091865052,-0.55944808,0.34438592,0.56766538,0.24732598,0.65618964,-0.2265336,0.0099488499,-0.090491184,-0.010559313,0.17369608,0.66977935,0.58596787,-0.17345589,0.07357028,-0.66732519,0.70892315,-1.0100555,-0.95842794,0.93356805,-0.1524089,-0.47326809,0.20877344,-0.38575242,-0.19340468,-0.18779271,0.91828587,0.081131605,0.36653078,1.6828635,-0.52573111,-0.66817826,-0.78425059,-0.4323217,-0.38082858,-0.30093482,-0.00091426234,-0.3824283,-0.99595921,-0.13038527,-0.83568323,-0.57961042,0.17973228,0.20449989,-0.030564296,0.62352202,-0.10354174,0.3649396,-0.37726566,0.060287917,0.13883933,-0.11894504,0.50291448,-0.34461385,1.162826,0.28113045,0.34109387,0.2428803,0.34263298,-0.23878742,0.51177304,-0.7598566,1.5530774,-0.38642321,0.14718784,1.0773805,0.78024332,0.70931357,-0.4674085,0.11065616,1.1646607,-0.55809523,0.071566724,-0.35650832,1.3514477,-0.63359396,-9.1365269e-32,-0.49389956,-0.43361247,-1.2330782,0.12608022,0.012719683,0.20088173,-1.2653158,-0.82119097,-0.28950828,-0.35635975,-0.87053695,-0.75678695,0.66575878,0.34432897,-0.92563565,-0.15330089,1.2871482,0.096326997,-0.74792502,-0.76701841,-0.49811031,0.4615715,-1.0045322,0.077649425,0.29647598,-0.23321067,-0.016121719,-0.086625037,0.63121455,-0.0624656,0.057676072,-1.0927542,-0.08301307,0.17683951,-0.1664324,0.091306413,-0.4321357,0.20350105,-0.40652626,0.032418603,0.20563587,0.15225563,-0.032460428,0.13876464,0.44806635,-0.32137128,-1.0717171,0.30529066,-0.0035592913,-1.8839517,-0.32242208,0.054703249,1.1831921,-0.78989141,-0.35405661,0.17218273,1.3365433,-0.33289887,-0.53588422,0.080249374,0.56269229,-0.44562826,0.60562842,0.35247424,-0.40948953,-0.078853085,0.81729323,-0.38706322,-1.0165868,-0.25794362,-0.22843334,-0.98280206,0.22809914,-0.030585459,-0.24468682,-0.53531137,-0.47259836,0.13018843,-0.88420573,-0.89987894,0.12290005,0.46516593,0.17370262,-0.95272661,0.20522997,0.044322688,0.020685789,-0.57890131,0.42836676,0.35004255,-0.92537664,0.26091954,-0.1249239,0.21504786,-0.11639969,-3.1024714e-7,0.38379192,0.18366467,-0.42327962,0.32462391,0.28363415,0.35078304,-0.043520061,0.40312105,-0.65759912,0.094885129,-0.73639943,0.28247863,0.28396872,0.24017941,-0.29448726,0.22801136,0.83233243,0.014334776,-0.13339847,0.26260997,0.081821416,-0.35640568,0.19304531,-0.23735128,-0.15759928,-0.14627974,-0.092261731,0.2357114,0.30441629,0.83446129,-0.27727201,0.72432329,0.32234688,-0.11578193,0.35343469,-0.89991368,0.014278263,0.19628645,-0.061299176,0.023269944,0.3119796,0.31752211,0.20124324,0.09482585,-0.1917603,-0.63849272,-1.1460548,-0.31182602,0.30349565,-0.54388533,0.31672212,-0.26841471,0.18891801,0.78332632,0.65782041,-0.052372381,0.22129306,0.32176802,-0.11519201,-0.048071144,0.31172258,-0.79300455,0.63958558,-0.36703474,2.5768969,0.5948812,1.7644171,0,-0.05486482,-0.84122151,-1.9924691,-0.066486057,-1.7388848,-0.53167241,-0.944145,1.4762374,2.4145664,-0.21091828,0.071979435,0,-0.12042767,3.0894203],"bias":-3.9054025}]}
